svm_type c_svc
kernel_type rbf
gamma 0.16666666666666666
nr_class 2
total_sv 531
rho 0.82884365535673121
label 1 -1
nr_sv 247 284
SV
1 1:1.9236641 2:-0.15267176 3:-0.022900763 4:1.0532227 5:0.013183594 6:0.21801758 
1 1:-0.22900763 2:-1.9312977 3:-0.4351145 4:1.045166 5:-0.0070800781 6:0.22460938 
1 1:0.061068702 2:-0.053435115 3:-0.24427481 4:1.0463867 5:-0.012451172 6:0.22143555 
1 1:-0.099236641 2:-0.0076335878 3:0.030534351 4:1.0461426 5:-0.0080566406 6:0.21899414 
1 1:0.022900763 2:-0.13740458 3:-0.26717557 4:1.032959 5:-0.0046386719 6:0.21728516 
1 1:0.061068702 2:-0.083969466 3:-0.34351145 4:1.0490723 5:-0.0017089844 6:0.22094727 
1 1:0.061068702 2:-0.14503817 3:-0.030534351 4:1.0495605 5:-0.0053710938 6:0.22436523 
1 1:-0.17557252 2:-0.12977099 3:-0.15267176 4:1.0617676 5:-0.0043945312 6:0.21142578 
1 1:-0.16030534 2:-0.12977099 3:-0.36641221 4:1.0622559 5:-0.0068359375 6:0.22216797 
1 1:-0.19847328 2:0.0076335878 3:-0.40458015 4:1.0412598 5:-0.0053710938 6:0.20361328 
1 1:-0.14503817 2:0.0076335878 3:-0.091603053 4:1.0505371 5:-0.010253906 6:0.22973633 
1 1:1.9389313 2:-0.022900763 3:-0.42748092 4:1.048584 5:-0.0051269531 6:0.22363281 
1 1:-0.038167939 2:-0.17557252 3:-0.39694656 4:1.0314941 5:-0.00390625 6:0.22924805 
1 1:-0.038167939 2:-0.1221374 3:-0.27480916 4:1.0439453 5:-0.0012207031 6:0.22363281 
1 1:-0.053435115 2:0.061068702 3:-0.030534351 4:1.0444336 5:-0.0075683594 6:0.22167969 
1 1:-1.9389313 2:1.9389313 3:-0.5648855 4:1.0466309 5:-0.00048828125 6:0.22021484 
1 1:-0.51145038 2:-0.053435115 3:-0.29007634 4:1.0322266 5:-0.0009765625 6:0.22509766 
1 1:-0.54198473 2:0.015267176 3:-0.3129771 4:1.0317383 5:-0.0041503906 6:0.22607422 
1 1:0.053435115 2:0.015267176 3:-0.54961832 4:1.0620117 5:-0.013916016 6:0.22094727 
1 1:-0.15267176 2:0.015267176 3:-0.58015267 4:1.0473633 5:-0.0012207031 6:0.22607422 
1 1:-1.9389313 3:-0.18320611 4:1.0446777 5:-0.0031738281 6:0.21313477 
1 1:-0.3129771 2:-1.9389313 3:-0.1221374 4:1.0439453 5:-0.0056152344 6:0.23291016 
1 1:1.870229 2:-0.045801527 3:-0.4351145 4:1.0461426 5:-0.0041503906 6:0.22851562 
1 1:-0.099236641 2:0.045801527 3:-1.8473282 4:1.045166 5:-0.0048828125 6:0.23266602 
1 1:-0.16793893 2:-0.0076335878 3:-0.4351145 4:1.032959 5:-0.015136719 6:0.20385742 
1 1:-0.14503817 2:-1.9389313 3:-0.35114504 4:1.0522461 5:-0.0024414062 6:0.22143555 
1 1:-1.9083969 2:-0.076335878 3:-0.7480916 4:1.0466309 5:0.0017089844 6:0.2199707 
1 1:-0.11450382 2:-1.9541985 3:-0.48854962 4:1.0402832 5:0.00048828125 6:0.22192383 
1 1:-0.22137405 2:1.9236641 3:-0.36641221 4:1.0380859 5:-0.0041503906 6:0.22241211 
1 1:0.16793893 2:0.015267176 3:-0.54961832 4:1.0419922 5:-0.0056152344 6:0.22192383 
1 1:-0.099236641 2:1.9389313 3:-0.045801527 4:1.0366211 5:-0.0056152344 6:0.16552734 
1 1:0.061068702 2:-0.10687023 3:-0.33587786 4:1.0400391 5:0.0080566406 6:0.27807617 
1 1:2.1603053 2:0.1221374 3:-0.30534351 4:1.0444336 5:0.0046386719 6:0.23950195 
1 1:2.1679389 2:0.06870229 3:0.12977099 4:1.0566406 5:-0.011962891 6:0.22143555 
1 1:1.6870229 2:-1.9007634 3:-0.54961832 4:1.0373535 5:-0.010253906 6:0.20483398 
1 1:0.60305344 2:-0.038167939 3:-1.9236641 4:1.0622559 5:-0.0043945312 6:0.20117188 
1 1:-0.06870229 2:-0.053435115 3:-0.44274809 4:1.0600586 5:-0.011230469 6:0.20483398 
1 1:0.15267176 2:0.022900763 3:0.16793893 4:1.0483398 5:-0.0036621094 6:0.21337891 
1 1:-0.24427481 2:-0.022900763 3:-0.41221374 4:1.0446777 5:0.00024414062 6:0.22070312 
1 1:-0.076335878 2:-1.9541985 3:-0.35114504 4:1.0446777 5:-0.0014648438 6:0.21655273 
1 1:-0.55725191 2:0.16030534 3:-0.045801527 4:1.0473633 5:0.0061035156 6:0.21606445 
1 1:1.9312977 2:-0.053435115 3:-0.41221374 4:1.0441895 5:-0.0046386719 6:0.2175293 
1 1:-0.15267176 2:0.06870229 3:-0.16030534 4:1.0336914 5:-0.0021972656 6:0.20849609 
1 1:1.7022901 2:-0.076335878 3:-0.54961832 4:1.0354004 5:-0.015625 6:0.23291016 
1 1:1.8396947 2:0.0076335878 3:-0.06870229 4:1.0666504 5:-0.011230469 6:0.25048828 
1 1:1.0687023 2:1.8015267 3:-0.26717557 4:1.0541992 5:-0.013183594 6:0.21337891 
1 1:0.42748092 2:-0.015267176 3:-0.46564885 4:1.0598145 5:-0.020263672 6:0.21142578 
1 1:0.29007634 2:-0.015267176 3:-0.4351145 4:1.0480957 5:-0.0024414062 6:0.2253418 
1 1:-0.10687023 2:-0.091603053 3:-0.19847328 4:1.0334473 5:-0.0053710938 6:0.2043457 
1 1:-0.16030534 2:-0.038167939 3:-0.38931298 4:1.0493164 5:-0.0026855469 6:0.23168945 
1 1:-0.32061069 2:0.045801527 3:-0.47328244 4:1.0336914 5:-0.0024414062 6:0.23071289 
1 1:-0.038167939 2:1.9083969 3:-0.083969466 4:1.048584 5:-0.010009766 6:0.20458984 
1 1:-0.34351145 2:1.9160305 3:-0.30534351 4:1.0327148 5:-0.015625 6:0.23120117 
1 1:-0.23664122 2:-0.12977099 3:-0.49618321 4:1.0500488 5:-0.0053710938 6:0.20727539 
1 1:-0.12977099 2:0.0076335878 3:-0.10687023 4:1.060791 5:-0.00048828125 6:0.23022461 
1 1:0.022900763 2:-0.022900763 3:-0.35877863 4:1.0566406 5:-0.0046386719 6:0.2199707 
1 1:-0.29007634 2:-0.061068702 3:1.8778626 4:1.0441895 5:-0.0014648438 6:0.22412109 
1 1:-0.1221374 2:-0.099236641 3:-0.40458015 4:1.0551758 5:0.013427734 6:0.21582031 
1 1:-0.061068702 2:-0.10687023 3:-0.4351145 4:1.0400391 5:-0.0029296875 6:0.22192383 
1 1:0.015267176 2:-0.076335878 3:-0.24427481 4:1.0522461 6:0.2199707 
1 1:-1.9389313 2:-0.061068702 3:-0.33587786 4:1.0576172 5:0.0092773438 6:0.20410156 
1 1:-0.32061069 2:-0.0076335878 3:-0.22900763 4:1.0407715 5:-0.0017089844 6:0.22558594 
1 1:-0.06870229 2:0.015267176 3:-0.3129771 4:1.0524902 5:-0.0009765625 6:0.23364258 
1 1:0.045801527 2:-0.0076335878 3:-0.16793893 4:1.0483398 5:-0.0036621094 6:0.22143555 
1 1:1.648855 2:1.8778626 3:-0.49618321 4:1.0490723 5:-0.0041503906 6:0.21850586 
1 1:-1.9465649 2:-0.022900763 3:-0.3129771 4:1.045166 5:-0.0061035156 6:0.22070312 
1 1:-0.06870229 2:-0.091603053 3:-0.27480916 4:1.0427246 5:-0.0048828125 6:0.20727539 
1 1:-0.33587786 2:-0.091603053 3:-0.18320611 4:1.0449219 5:0.015380859 6:0.22583008 
1 1:-0.29007634 2:0.076335878 3:-0.29770992 4:1.0441895 5:-0.0046386719 6:0.22290039 
1 1:-0.32824427 2:-0.030534351 3:-0.3129771 4:1.0541992 5:0.0083007812 6:0.20385742 
1 1:-0.19083969 2:0.061068702 3:-0.58778626 4:1.0510254 5:-0.0026855469 6:0.22143555 
1 1:-0.41221374 2:1.9083969 3:-0.19083969 4:1.0454102 5:-0.0046386719 6:0.23388672 
1 1:1.6641221 2:-1.9007634 3:-0.70992366 4:1.0349121 5:-0.0031738281 6:0.21557617 
1 1:-0.083969466 2:-0.091603053 3:-0.66412214 4:1.0488281 5:-0.0017089844 6:0.22192383 
1 1:-1.9465649 2:0.0076335878 3:-0.75572519 4:1.0444336 5:0.0046386719 6:0.22387695 
1 1:-0.24427481 2:-0.083969466 3:-0.6870229 4:1.050293 5:-0.0043945312 6:0.22363281 
1 1:1.5801527 2:-1.8854962 3:-0.32061069 4:1.0588379 5:-0.0087890625 6:0.2265625 
1 1:-0.40458015 2:0.038167939 3:-0.52671756 4:1.0471191 5:-0.013427734 6:0.23144531 
1 1:-1.8854962 2:1.8854962 3:-0.17557252 4:1.036377 5:-0.0065917969 6:0.22875977 
1 1:1.7099237 2:0.038167939 3:-0.45801527 4:1.0483398 5:-0.0061035156 6:0.20458984 
1 1:1.7099237 2:-0.06870229 3:-0.60305344 4:1.0615234 5:-0.0024414062 6:0.22753906 
1 1:-0.3129771 2:-1.9312977 3:-0.3740458 4:1.0446777 5:-0.0017089844 6:0.22583008 
1 1:-0.28244275 2:-0.030534351 3:-0.38931298 4:1.0537109 5:-0.0046386719 6:0.21704102 
1 1:-0.045801527 2:-0.11450382 3:-0.24427481 4:1.0615234 5:-0.0024414062 6:0.23364258 
1 1:-0.27480916 2:0.0076335878 3:-0.38167939 4:1.0461426 5:-0.0070800781 6:0.21923828 
1 1:-0.015267176 2:-0.015267176 3:-0.24427481 4:1.032959 5:-0.0065917969 6:0.21533203 
1 1:1.8778626 2:-0.17557252 3:-0.17557252 4:1.0412598 5:-0.012451172 6:0.22192383 
1 1:-0.39694656 2:-1.9389313 3:-0.42748092 4:1.0483398 5:-0.0061035156 6:0.2253418 
1 1:1.8320611 2:-0.06870229 3:-0.030534351 4:1.0383301 5:-0.005859375 6:0.21313477 
1 1:-0.022900763 2:-1.9312977 3:-0.50381679 4:1.0407715 5:0.010986328 6:0.21582031 
1 1:-0.022900763 2:-1.9389313 3:-0.58778626 4:1.0598145 5:-0.0083007812 6:0.21923828 
1 1:-0.3740458 2:-0.10687023 3:-0.24427481 4:1.0388184 5:-0.0043945312 6:0.22094727 
1 1:-0.12977099 2:-0.053435115 3:-0.083969466 4:1.0439453 5:-0.001953125 6:0.21264648 
1 1:-1.7328244 2:-0.076335878 3:-0.45801527 4:1.0324707 5:-0.0053710938 6:0.21191406 
1 1:-0.19847328 2:-0.038167939 3:-0.27480916 4:1.0566406 5:-0.0034179688 6:0.20776367 
1 1:0.1221374 3:-0.20610687 4:1.0446777 5:-0.0056152344 6:0.21850586 
1 1:-0.32061069 2:-1.8931298 3:-0.14503817 4:1.0600586 6:0.22436523 
1 1:-0.24427481 2:-1.9312977 3:-0.22137405 4:1.0500488 5:-0.009765625 6:0.21850586 
1 1:-1.9312977 2:1.8015267 3:-0.45038168 4:1.0483398 5:-0.0048828125 6:0.22143555 
1 1:-0.015267176 2:-0.061068702 3:-0.53435115 4:1.0351562 5:-0.0021972656 6:0.2265625 
1 1:0.12977099 2:0.083969466 3:-0.29007634 4:1.036377 5:-0.0043945312 6:0.20336914 
1 1:-0.20610687 2:-0.26717557 3:-0.32824427 4:1.0371094 5:-0.0061035156 6:0.23681641 
1 1:0.53435115 2:0.076335878 3:-0.39694656 4:1.0559082 5:-0.010009766 6:0.24316406 
1 1:1.9312977 2:-0.045801527 3:-0.42748092 4:1.0412598 5:0.028076172 6:0.25048828 
0.73095982610482002 1:5.7709924 2:-0.1221374 3:-0.24427481 4:1.0695801 5:-0.0085449219 6:0.21411133 
1 1:2.2137405 2:0.045801527 3:-0.3740458 4:1.050293 5:-0.0053710938 6:0.20776367 
1 1:1.0458015 2:0.0076335878 3:-0.48854962 4:1.0534668 5:-0.0029296875 6:0.21166992 
1 1:0.65648855 2:-0.1221374 3:-0.32061069 4:1.0449219 5:-0.0085449219 6:0.20092773 
1 1:0.26717557 2:-0.0076335878 3:-0.20610687 4:1.0524902 5:-0.0034179688 6:0.22973633 
1 1:0.29007634 2:0.045801527 3:-0.083969466 4:1.0603027 5:-0.0029296875 6:0.21948242 
1 1:-0.27480916 2:-0.038167939 3:-0.4351145 4:1.050293 5:-0.0024414062 6:0.2265625 
1 1:-0.1221374 2:-0.053435115 3:-0.2519084 4:1.0461426 5:-0.015625 6:0.21972656 
1 1:0.045801527 2:0.061068702 3:-0.21374046 4:1.0332031 5:-0.0017089844 6:0.22119141 
1 1:1.7709924 2:-0.022900763 3:-0.091603053 4:1.0617676 5:0.015136719 6:0.21289062 
1 1:0.038167939 2:-0.022900763 3:-0.2519084 4:1.0483398 5:0.0021972656 6:0.20629883 
1 1:0.038167939 2:0.022900763 3:-0.60305344 4:1.0324707 5:0.013183594 6:0.22485352 
1 1:0.10687023 2:1.9083969 3:-0.32061069 4:1.0344238 5:-0.0063476562 6:0.21923828 
1 1:-1.8931298 2:-0.083969466 3:-1.9160305 4:1.0466309 5:0.0014648438 6:0.22338867 
1 1:-0.19083969 2:-0.061068702 3:-0.60305344 4:1.0578613 5:-0.0017089844 6:0.22705078 
1 1:-0.23664122 2:0.053435115 3:-0.48854962 4:1.0490723 5:-0.0053710938 6:0.22070312 
1 1:-0.0076335878 2:-0.099236641 3:-0.28244275 4:1.052002 5:0.00073242188 6:0.2199707 
1 1:1.6564885 2:1.9312977 3:-0.51145038 4:1.0458984 5:-0.0029296875 6:0.20800781 
1 1:1.778626 2:-1.8854962 3:-0.26717557 4:1.046875 5:0.001953125 6:0.2331543 
1 1:-0.3740458 2:1.9160305 3:-0.24427481 4:1.0546875 5:-0.0024414062 6:0.23217773 
1 1:-0.12977099 2:-0.030534351 3:-0.022900763 4:1.050293 5:-0.00048828125 6:0.20922852 
1 1:-0.015267176 2:-0.17557252 3:-0.30534351 4:1.045166 5:-0.00073242188 6:0.22631836 
1 1:-0.3740458 2:-0.099236641 3:-0.42748092 4:1.0456543 5:-0.0029296875 6:0.22290039 
1 1:-0.11450382 2:-0.10687023 3:-0.22137405 4:1.0622559 5:-0.0031738281 6:0.22460938 
1 1:-0.35114504 2:0.015267176 3:-0.46564885 4:1.0222168 5:-0.015625 6:0.21044922 
1 1:-0.28244275 2:-0.19083969 3:-0.74045802 4:1.0292969 5:-0.001953125 6:0.24414062 
1 1:-0.28244275 2:-1.8854962 3:-0.33587786 4:1.0517578 5:-0.010009766 6:0.22680664 
1 1:-0.36641221 2:0.038167939 3:-0.29770992 4:1.0444336 5:-0.0043945312 6:0.22045898 
1 1:-0.038167939 2:0.015267176 3:-0.18320611 4:1.0375977 5:-0.001953125 6:0.21435547 
1 1:-0.091603053 2:-0.015267176 3:-0.47328244 4:1.059082 5:-0.0034179688 6:0.22705078 
1 1:-0.10687023 2:-0.061068702 3:-0.54961832 4:1.043457 5:-0.0031738281 6:0.23266602 
1 1:0.083969466 2:-0.022900763 3:-0.73282443 4:1.0419922 5:-0.0053710938 6:0.2277832 
1 1:-0.22900763 2:0.038167939 3:-0.63358779 4:1.0410156 5:-0.0034179688 6:0.22216797 
1 1:-0.16030534 2:-0.045801527 3:-0.33587786 4:1.0393066 5:-0.0029296875 6:0.22094727 
1 1:-0.22137405 2:-1.9389313 3:-0.083969466 4:1.0463867 5:-0.0061035156 6:0.23364258 
1 1:-0.39694656 2:-0.061068702 3:0.053435115 4:1.0319824 5:-0.014404297 6:0.2109375 
1 1:-0.038167939 2:-0.038167939 3:-0.19083969 4:1.0610352 5:-0.0009765625 6:0.21899414 
1 1:0.022900763 2:-0.061068702 3:-0.16793893 4:1.0368652 5:-0.00073242188 6:0.21972656 
1 1:-0.091603053 2:-0.10687023 3:-0.29007634 4:1.046875 5:-0.0012207031 6:0.21313477 
1 1:-0.14503817 2:-0.015267176 3:-0.21374046 4:1.0427246 5:-0.0061035156 6:0.21899414 
1 1:1.6946565 2:-0.099236641 3:-0.4351145 4:1.0480957 5:-0.005859375 6:0.23413086 
1 1:-1.8473282 2:1.8549618 3:-0.19083969 4:1.0400391 5:-0.0029296875 6:0.20654297 
1 1:-0.038167939 2:-0.030534351 3:-0.32061069 4:1.0444336 5:0.00073242188 6:0.22167969 
1 1:0.015267176 2:0.38931298 3:-0.35114504 4:1.0644531 5:-0.0012207031 6:0.14086914 
1 1:2.1450382 2:0.51908397 3:-0.17557252 4:1.0375977 5:-0.011962891 6:0.23364258 
0.42570930878619007 1:4.8244275 2:1.9465649 3:-0.30534351 4:0.99633789 5:-0.028076172 6:0.19042969 
1 1:2.0305344 2:-1.8320611 3:-1.9389313 4:1.0197754 5:-0.014648438 6:0.23266602 
1 1:2.8625954 2:-1.9465649 3:-0.33587786 4:1.0437012 5:-0.0026855469 6:0.15893555 
1 1:1.4122137 2:1.8931298 3:-0.022900763 4:1.0532227 5:-0.001953125 6:0.19384766 
1 1:0.46564885 2:-1.9389313 3:-0.35877863 4:1.0517578 5:-0.001953125 6:0.21728516 
1 1:-0.083969466 2:-0.091603053 3:-0.41984733 4:1.0471191 5:-0.0053710938 6:0.2175293 
1 1:-0.25954198 2:-0.19847328 3:-0.22900763 4:1.0412598 5:0.0036621094 6:0.21459961 
1 1:-1.8625954 2:-0.053435115 3:-0.19083969 4:1.0439453 5:-0.0012207031 6:0.22973633 
1 1:-0.23664122 2:-0.053435115 3:-0.54198473 4:1.0336914 5:-0.0031738281 6:0.21582031 
1 1:-0.23664122 2:-0.0076335878 3:-0.26717557 4:1.0424805 5:-0.0031738281 6:0.22290039 
1 1:0.10687023 2:0.0076335878 3:-0.46564885 4:1.0393066 5:0.013916016 6:0.20288086 
1 1:-0.29007634 2:1.9007634 3:-0.18320611 4:1.0539551 5:0.00073242188 6:0.22973633 
1 1:-0.28244275 2:-1.9083969 3:-0.17557252 4:1.034668 5:-0.0070800781 6:0.22753906 
1 1:-0.3740458 2:-1.9236641 3:-0.40458015 4:1.0600586 5:-0.001953125 6:0.21020508 
1 1:-0.11450382 2:0.13740458 3:-0.49618321 4:1.0581055 5:-0.0053710938 6:0.22900391 
1 1:-1.9389313 2:-0.091603053 3:-0.33587786 4:1.0378418 5:-0.005859375 6:0.22192383 
1 1:-0.23664122 2:-0.061068702 3:-0.15267176 4:1.0368652 5:-0.014892578 6:0.22192383 
1 1:-0.022900763 2:0.045801527 3:-0.29007634 4:1.0534668 5:-0.0053710938 6:0.21630859 
1 1:-0.0076335878 2:-0.0076335878 3:-0.77862595 4:1.059082 5:-0.0034179688 6:0.21484375 
1 1:-0.015267176 2:1.9007634 3:-0.35877863 4:1.046875 5:-0.0021972656 6:0.22705078 
1 1:-0.23664122 2:-0.083969466 3:-1.8167939 4:1.0505371 5:-0.00048828125 6:0.22998047 
1 1:-0.28244275 2:-0.038167939 3:-0.26717557 4:1.0439453 5:-0.0031738281 6:0.22241211 
1 1:-0.045801527 2:0.030534351 3:-0.3129771 4:1.032959 5:-0.0070800781 6:0.22045898 
1 1:0.045801527 2:-0.16030534 3:-0.22137405 4:1.0463867 5:-0.0046386719 6:0.22021484 
1 1:-0.22900763 2:0.015267176 3:-0.61068702 4:1.0554199 5:-0.0065917969 6:0.2175293 
1 1:-0.30534351 3:-0.091603053 4:1.0512695 6:0.22167969 
1 1:-0.3129771 2:1.9236641 3:-0.35877863 4:1.0505371 5:-0.0065917969 6:0.21411133 
1 1:1.9007634 2:1.9465649 3:-0.083969466 4:1.0524902 5:-0.0034179688 6:0.21411133 
1 1:-0.33587786 2:-1.8931298 3:-0.48854962 4:1.0500488 5:-0.0065917969 6:0.22485352 
1 1:-0.06870229 2:-1.9541985 3:-0.28244275 4:1.0473633 5:-0.00390625 6:0.22485352 
1 1:1.6412214 2:-0.022900763 3:-0.59541985 4:1.0344238 5:-0.0014648438 6:0.22216797 
1 1:-0.053435115 2:-0.06870229 3:-0.38931298 4:1.0327148 5:-0.010253906 6:0.23364258 
1 1:0.045801527 2:0.0076335878 3:-0.22900763 4:1.0437012 5:-0.0068359375 6:0.23339844 
1 1:-1.8931298 2:-1.9312977 3:-0.38167939 4:1.0471191 5:-0.0063476562 6:0.22265625 
1 1:-0.29770992 2:1.9312977 3:-0.30534351 4:1.0488281 5:-0.0026855469 6:0.23193359 
1 1:-0.0076335878 2:0.038167939 3:-0.12977099 4:1.0429688 5:0.00048828125 6:0.2277832 
1 1:1.8320611 2:-0.015267176 3:-0.22900763 4:1.0517578 5:-0.0075683594 6:0.20947266 
1 1:-0.24427481 2:-1.8625954 3:-0.061068702 4:1.0493164 5:-0.0036621094 6:0.2253418 
1 1:-0.038167939 2:-0.076335878 3:-0.35877863 4:1.0461426 5:-0.00048828125 6:0.22705078 
1 1:-0.30534351 2:-0.038167939 3:-0.29007634 4:1.0480957 5:-0.013916016 6:0.23095703 
1 1:-0.29770992 2:-0.13740458 3:-0.30534351 4:1.0537109 5:-0.010742188 6:0.22509766 
1 1:-0.26717557 2:-0.06870229 3:-0.15267176 4:1.0400391 5:-0.01953125 6:0.21264648 
1 1:0.66412214 2:0.16793893 3:-0.1221374 4:1.0527344 5:0.0009765625 6:0.27319336 
1 1:2.221374 2:-0.045801527 3:-0.45038168 4:1.0419922 5:-0.00073242188 6:0.24853516 
1 1:3.9923664 2:-0.22900763 3:1.9007634 4:1.0942383 5:-0.012451172 6:0.25610352 
0.1708803403185182 1:2.7175573 2:1.9160305 3:-0.083969466 4:1.0344238 5:-0.0014648438 6:0.22192383 
1 1:2.610687 2:-0.022900763 3:-0.12977099 4:1.0605469 5:-0.0073242188 6:0.23657227 
1 1:0.13740458 2:-0.061068702 3:-0.2519084 4:1.0246582 5:-0.015380859 6:0.21118164 
1 1:1.6946565 2:0.022900763 3:-0.40458015 4:1.0383301 5:-0.011474609 6:0.21313477 
1 1:0.93129771 2:-0.076335878 3:-0.47328244 4:1.0539551 5:-0.0075683594 6:0.23291016 
1 1:0.90076336 2:-0.10687023 3:-0.44274809 4:1.052002 5:-0.0075683594 6:0.22705078 
1 1:1.3282443 2:-0.045801527 3:-0.38167939 4:1.0419922 5:-0.00024414062 6:0.24023438 
1 1:0.93129771 2:-0.083969466 3:-0.19847328 4:1.0473633 5:-0.0063476562 6:0.21655273 
1 1:0.74045802 2:1.9236641 3:-0.06870229 4:1.0390625 5:-0.015625 6:0.20556641 
1 1:0.69465649 2:0.083969466 3:-0.35877863 4:1.0527344 5:-0.0070800781 6:0.22021484 
1 1:0.77099237 2:-1.9083969 3:-0.061068702 4:1.0388184 5:-0.0041503906 6:0.23217773 
1 1:0.55725191 2:-0.038167939 3:-0.49618321 4:1.0588379 5:0.012207031 6:0.22705078 
1 1:0.74045802 2:-0.038167939 3:-0.32061069 4:1.0378418 5:-0.0024414062 6:0.22460938 
1 1:0.50381679 2:-0.061068702 3:-0.29007634 4:1.0424805 5:0.014648438 6:0.20703125 
1 1:1.8320611 2:-0.076335878 3:-0.51908397 4:1.0495605 5:-0.0046386719 6:0.2109375 
0.35559701178061159 1:2.7022901 2:-0.045801527 3:-0.41984733 4:1.0588379 5:-0.011962891 6:0.20117188 
1 1:2.6183206 2:-0.06870229 3:-0.45038168 4:1.0249023 5:-0.0070800781 6:0.2019043 
1 1:2.4656489 2:1.8931298 3:-0.35114504 4:1.0703125 5:-0.0065917969 6:0.1875 
1 1:2.4732824 2:0.015267176 3:-0.25954198 4:1.0734863 5:-0.015625 6:0.20727539 
1 1:1.8778626 2:-0.16030534 3:-0.20610687 4:1.034668 5:-0.014648438 6:0.17285156 
1 1:1.8091603 2:-0.053435115 3:0.022900763 4:1.0285645 5:0.0046386719 6:0.28686523 
1 1:1.6717557 2:0.038167939 3:-0.48854962 4:1.0354004 5:-0.0048828125 6:0.21264648 
1 1:1.4122137 2:-0.022900763 3:-0.21374046 4:1.0444336 5:0.0024414062 6:0.25585938 
1 1:1.3435115 2:-1.9465649 3:-0.38167939 4:1.0212402 5:-0.0031738281 6:0.19384766 
1 1:1.2977099 2:-0.15267176 3:-0.58015267 4:1.0488281 5:-0.00024414062 6:0.23144531 
1 1:1.4503817 2:-0.053435115 3:-0.22900763 4:1.0593262 5:-0.00390625 6:0.20385742 
1 1:1.0152672 2:-0.11450382 3:-0.19083969 4:1.0334473 5:-0.00048828125 6:0.23706055 
1 1:0.73282443 2:1.8931298 3:-0.083969466 4:1.0419922 5:-0.014404297 6:0.21801758 
1 1:0.80152672 2:-0.06870229 3:-0.44274809 4:1.0397949 5:-0.0061035156 6:0.20678711 
1 1:0.14503817 2:-0.099236641 3:-0.30534351 4:1.0419922 5:-0.0021972656 6:0.21240234 
1 1:-1.8854962 2:-0.091603053 3:-0.53435115 4:1.0505371 5:-0.00024414062 6:0.21362305 
1 1:-0.19083969 2:0.038167939 3:-0.35877863 4:1.0427246 5:-0.001953125 6:0.22167969 
1 1:-0.29770992 2:-0.0076335878 3:-0.28244275 4:1.0480957 5:0.015136719 6:0.21264648 
1 1:-0.25954198 2:0.06870229 3:-0.076335878 4:1.0510254 5:-0.0073242188 6:0.2175293 
1 1:-0.076335878 2:-0.091603053 3:-0.11450382 4:1.045166 5:-0.00024414062 6:0.22314453 
1 1:0.022900763 2:-1.9541985 3:-0.3740458 4:1.0344238 5:0.00390625 6:0.20825195 
1 1:-1.9389313 2:-0.022900763 3:1.7175573 4:1.0612793 5:-0.0063476562 6:0.22021484 
1 1:-0.18320611 2:-0.045801527 3:-0.61832061 4:1.0500488 5:-0.0061035156 6:0.22607422 
1 1:0.22900763 2:-1.9083969 3:-0.24427481 4:1.0598145 5:-0.0029296875 6:0.22509766 
1 1:0.32061069 2:0.030534351 3:-0.54198473 4:1.0402832 5:-0.013183594 6:0.22192383 
1 1:0.42748092 2:1.9083969 3:-0.28244275 4:1.0437012 5:0.015380859 6:0.21411133 
1 1:0.19083969 2:0.099236641 3:-0.20610687 4:1.0539551 5:-0.0048828125 6:0.22094727 
1 1:-0.14503817 3:-0.2519084 4:1.0483398 5:-0.0048828125 6:0.21166992 
1 1:-0.38931298 2:-0.10687023 3:-0.12977099 4:1.0371094 5:-0.0036621094 6:0.20361328 
1 1:-0.32061069 2:-0.053435115 3:-0.63358779 4:1.052002 5:-0.0036621094 6:0.22583008 
1 1:-0.022900763 2:0.053435115 3:-0.18320611 4:1.0314941 5:-0.0009765625 6:0.20605469 
1 1:0.12977099 2:0.022900763 3:-0.2519084 4:1.059082 5:-0.00024414062 6:0.21826172 
1 1:0.076335878 2:0.045801527 3:-0.015267176 4:1.0437012 5:-0.0034179688 6:0.22558594 
1 1:0.26717557 2:-0.1221374 3:-0.16793893 4:1.0478516 5:-0.0014648438 6:0.21826172 
1 1:-0.11450382 2:-0.091603053 3:-0.51908397 4:1.0612793 5:-0.00073242188 6:0.21630859 
1 1:-0.06870229 2:0.038167939 3:-0.26717557 4:1.046875 5:-0.0014648438 6:0.22070312 
1 1:0.06870229 2:0.06870229 3:-0.48854962 4:1.0483398 5:-0.001953125 6:0.20581055 
1 1:-0.39694656 3:-0.14503817 4:1.045166 5:-0.0046386719 6:0.21826172 
-0.16151710780802395 1:-5.9923664 2:11.70229 3:-0.0076335878 4:1.999939 5:-0.24267578 6:0.14648438 
-1 1:-0.13740458 2:-1.9236641 3:-0.25954198 4:1.0812988 5:-0.00390625 6:0.25634766 
-1 1:-1.9236641 2:1.8854962 3:-0.48091603 4:1.0546875 5:0.014160156 6:0.22387695 
-1 1:-1.740458 2:-0.091603053 3:-0.45038168 4:1.0385742 5:0.0083007812 6:0.22436523 
-0.044936662909153831 1:-0.13740458 2:-1.8473282 3:-0.2519084 4:1.0439453 5:-0.00073242188 6:0.24047852 
-1 1:0.045801527 2:-0.038167939 3:-0.38167939 4:1.0512695 5:0.0061035156 6:0.23217773 
-1 1:-0.030534351 2:-0.038167939 3:-0.29770992 4:1.0422363 5:-0.0041503906 6:0.2331543 
-1 1:-0.030534351 2:0.053435115 3:-0.55725191 4:1.0449219 5:0.0009765625 6:0.22851562 
-1 1:-0.091603053 2:-0.022900763 3:-0.29770992 4:1.0620117 5:0.0009765625 6:0.22924805 
-1 1:1.6564885 2:-0.053435115 3:-0.32061069 4:1.045166 5:-0.0061035156 6:0.23120117 
-1 1:-0.06870229 2:0.053435115 3:-0.36641221 4:1.0439453 5:-0.0031738281 6:0.22338867 
-1 1:1.5572519 2:-0.06870229 3:-0.51908397 4:1.0327148 5:-0.001953125 6:0.23095703 
-1 1:-0.0076335878 2:-0.015267176 3:-0.076335878 4:1.046875 5:0.010742188 6:0.24194336 
-1 1:-0.091603053 2:0.061068702 3:-0.32061069 4:1.0524902 5:-0.0026855469 6:0.2253418 
-1 1:0.038167939 2:-0.06870229 3:-0.48854962 4:1.0610352 5:0.013427734 6:0.23608398 
-1 1:1.6259542 2:-0.083969466 3:-0.22900763 4:1.045166 5:-0.00048828125 6:0.22094727 
-1 1:0.12977099 2:-0.0076335878 3:-0.19847328 4:1.0461426 5:0.0078125 6:0.23095703 
-1 1:0.1221374 2:-1.9465649 3:-0.26717557 4:1.0483398 5:0.014648438 6:0.21606445 
-1 1:-0.015267176 2:-0.061068702 3:-0.12977099 4:1.0505371 5:-0.009765625 6:0.22045898 
-1 1:1.7175573 2:-0.12977099 3:-0.41221374 4:1.0427246 5:-0.0065917969 6:0.23364258 
-1 1:-0.053435115 2:-0.06870229 3:-0.061068702 4:1.0458984 5:-0.0036621094 6:0.22802734 
-1 1:-0.15267176 2:-0.030534351 3:-0.51908397 4:1.0478516 5:0.014160156 6:0.20483398 
-1 1:0.045801527 2:-0.015267176 3:-0.45801527 4:1.0341797 5:-0.0048828125 6:0.22509766 
-0.86963425073293288 1:-0.45801527 2:-0.038167939 3:-0.038167939 4:1.0507812 5:-0.0095214844 6:0.21923828 
-1 1:-0.053435115 2:-0.099236641 3:-0.030534351 4:1.0537109 5:-0.0043945312 6:0.20727539 
-1 1:0.030534351 2:0.015267176 3:-0.19083969 4:1.0319824 5:0.0014648438 6:0.2199707 
-1 1:0.083969466 2:-0.022900763 3:-0.5648855 4:1.0471191 5:-0.0065917969 6:0.21582031 
-1 1:-0.12977099 2:-0.038167939 3:-0.1221374 4:1.0610352 5:-0.0056152344 6:0.20751953 
-0.79250451942344324 1:-1.9465649 2:-0.099236641 3:1.8778626 4:1.0446777 5:-0.0017089844 6:0.22705078 
-1 1:-0.20610687 2:-0.099236641 3:-0.22137405 4:1.0622559 5:-0.014892578 6:0.20361328 
-0.098037286149377165 1:-3.8320611 2:0.92366412 3:-0.63358779 4:1.0888672 5:-0.092285156 6:-0.094970703 
-0.13414869910785845 1:-12.89313 2:5.5725191 3:-1.5496183 4:1.0693359 5:-0.12670898 6:0.15649414 
-0.032067452571104882 1:-11.564885 2:-0.19083969 3:-1.4427481 4:0.9921875 5:-0.082275391 6:0.41308594 
-0.13943644455078211 1:-1.1832061 2:-3.8473282 3:0.022900763 4:1.1115723 5:0.0053710938 6:0.13012695 
-1 1:0.83969466 2:-0.65648855 3:-0.63358779 4:0.94726562 5:0.035400391 6:0.47314453 
-1 1:-0.13740458 2:-0.16793893 3:-0.44274809 4:1.0578613 5:0.011962891 6:0.19873047 
-1 1:-0.022900763 2:-0.091603053 3:-0.3129771 4:1.0437012 5:-0.014648438 6:0.22412109 
-1 1:-0.061068702 2:0.083969466 3:-0.32824427 4:1.0412598 5:0.0041503906 6:0.2199707 
-0.35324390027503455 1:-0.015267176 2:-0.10687023 3:-0.50381679 4:1.0422363 5:-0.012451172 6:0.2253418 
-1 1:-0.15267176 2:-0.06870229 3:-0.26717557 4:1.0507812 5:-0.00024414062 6:0.2175293 
-1 1:-0.045801527 2:0.015267176 3:-0.38167939 4:1.0351562 6:0.22998047 
-1 1:0.06870229 2:1.9236641 3:-0.30534351 4:1.0432129 5:-0.0034179688 6:0.21582031 
-1 1:0.30534351 2:-0.015267176 3:-0.51145038 4:1.0515137 5:0.015136719 6:0.21191406 
-1 1:-0.083969466 2:0.13740458 3:-0.29007634 4:1.0476074 5:-0.0026855469 6:0.22583008 
-1 1:0.1221374 2:-0.015267176 3:-0.16030534 4:1.0439453 5:-0.0034179688 6:0.20703125 
-1 1:1.8167939 2:-1.9083969 3:-1.9007634 4:1.0585938 5:-0.015625 6:0.22241211 
-1 1:0.061068702 2:-0.083969466 3:-0.045801527 4:1.0600586 5:-0.0043945312 6:0.2175293 
-1 1:-0.022900763 2:-0.045801527 3:-0.24427481 4:1.0444336 5:0.0014648438 6:0.23291016 
-1 1:-0.51145038 2:-0.06870229 3:-0.49618321 4:1.0566406 5:-0.0014648438 6:0.21508789 
-1 1:-0.54961832 2:-0.0076335878 3:-0.32824427 4:1.043457 5:0.0080566406 6:0.2121582 
-1 1:0.4351145 2:-0.045801527 3:-0.29007634 4:1.046875 5:0.01171875 6:0.21972656 
-1 1:0.045801527 2:0.076335878 3:-0.51908397 4:1.0476074 5:-0.0009765625 6:0.23339844 
-1 1:-0.14503817 2:-0.061068702 3:-0.23664122 4:1.0444336 5:-0.0029296875 6:0.2175293 
-1 1:-0.015267176 2:-0.022900763 3:-0.13740458 4:1.0444336 5:0.013916016 6:0.21728516 
-1 1:-0.083969466 2:-0.083969466 3:-0.14503817 4:1.0493164 5:0.0012207031 6:0.21240234 
-1 1:-0.1221374 2:-1.9160305 3:-0.19083969 4:1.045166 5:0.00073242188 6:0.21875 
-0.93841308115135413 1:-0.36641221 2:-0.12977099 3:-0.29770992 4:1.050293 5:-0.015136719 6:0.21777344 
-1 1:0.19847328 2:-0.061068702 3:-0.038167939 4:1.048584 5:-0.0017089844 6:0.21630859 
-0.2241720469219432 1:-0.39694656 2:-0.21374046 3:-0.32061069 4:1.0466309 5:-0.00073242188 6:0.22094727 
-1 1:-0.29007634 2:0.32061069 3:-0.63358779 4:1.0270996 5:-0.044677734 6:-0.090820312 
-0.16055262830195377 1:-14.061069 2:9.3129771 3:-1.7557252 4:1.104248 5:-0.14428711 6:0.15722656 
-0.047168001627539355 1:-14.022901 2:-1.6183206 3:-1.3740458 4:1.0766602 5:-0.087646484 6:0.34033203 
-0.010097744379791556 1:-5.6259542 2:-0.82442748 3:-0.83969466 4:1.034668 5:0.020751953 6:0.49389648 
-0.094506155363935987 1:1.1679389 2:8.1221374 3:-1.5496183 4:1.0283203 5:0.3046875 6:0.36523438 
-1 1:0.13740458 2:1.2900763 3:0.0076335878 4:0.81665039 5:0.029785156 6:0.33203125 
-1 1:0.1221374 2:0.10687023 3:-0.32061069 4:0.98022461 5:0.023681641 6:0.26660156 
-1 1:-0.16793893 2:-1.9160305 3:-0.45801527 4:1.0583496 5:-0.018066406 6:0.26489258 
-0.29421336212112098 1:-0.06870229 2:0.045801527 3:-0.076335878 4:1.0322266 5:-0.0075683594 6:0.24853516 
-1 1:0.083969466 2:-0.076335878 3:-0.2519084 4:1.0622559 5:0.0073242188 6:0.26367188 
-1 1:-0.053435115 2:-1.9541985 3:-0.16793893 4:1.0493164 5:-0.0053710938 6:0.23925781 
-1 1:0.061068702 2:1.8778626 3:-0.3740458 4:1.043457 5:-0.0068359375 6:0.2355957 
-1 1:1.8549618 2:-0.091603053 3:-0.076335878 4:1.0385742 5:-0.0063476562 6:0.26025391 
-1 1:1.740458 2:-0.030534351 3:-0.21374046 4:1.0327148 5:-0.0087890625 6:0.23974609 
-1 1:1.8931298 2:-0.015267176 3:-0.083969466 4:1.0344238 5:0.00073242188 6:0.26245117 
-1 1:-1.8625954 2:0.1221374 3:-0.4351145 4:1.032959 5:-0.0024414062 6:0.2487793 
-1 1:-0.15267176 2:-1.9465649 3:-0.20610687 4:1.0554199 5:0.014648438 6:0.2409668 
-1 1:1.8625954 2:-0.091603053 3:-1.9312977 4:1.0454102 5:0.012695312 6:0.23901367 
-1 1:0.17557252 2:-0.045801527 3:-0.27480916 4:1.0495605 5:-0.015380859 6:0.24047852 
-1 1:-0.099236641 2:-0.12977099 3:-0.30534351 4:1.0546875 5:0.013183594 6:0.18408203 
-1 1:0.13740458 2:-1.8778626 3:-0.3129771 4:1.0439453 5:-0.0017089844 6:0.23681641 
-1 1:1.7862595 2:0.099236641 3:-0.48091603 4:1.041748 5:-0.010253906 6:0.24511719 
-1 1:-0.053435115 2:-1.9465649 3:-0.42748092 4:1.0603027 5:0.0041503906 6:0.24584961 
-1 1:1.7328244 2:-0.061068702 3:-0.7480916 4:1.0349121 5:0.013183594 6:0.25537109 
-1 1:0.030534351 2:0.10687023 3:-0.022900763 4:1.043457 5:-0.0012207031 6:0.26367188 
-1 1:1.870229 2:-0.022900763 3:-0.45038168 4:1.043457 5:-0.0065917969 6:0.25976562 
-1 1:1.6030534 2:-0.12977099 3:-0.60305344 4:1.032959 5:-0.0041503906 6:0.25366211 
-1 1:1.5648855 2:1.8931298 3:-0.13740458 4:1.0483398 5:-0.0024414062 6:0.24243164 
-1 1:1.8778626 2:-1.9465649 3:-0.2519084 4:1.060791 5:0.0017089844 6:0.2578125 
-1 1:0.022900763 2:1.8625954 3:-0.41984733 4:1.0429688 5:-0.0014648438 6:0.24633789 
-1 1:1.8625954 2:1.8931298 3:-0.26717557 4:1.0461426 5:-0.011230469 6:0.25219727 
-1 1:-0.63358779 2:1.9007634 3:-0.40458015 4:1.0327148 5:-0.0063476562 6:0.22753906 
-0.99144096814370686 1:-1.1755725 2:-1.7709924 3:-0.24427481 4:1.0849609 5:-0.0026855469 6:0.24145508 
-1 1:1.8549618 2:0.06870229 3:-0.35877863 4:1.0339355 5:0.0026855469 6:0.24804688 
-1 1:-0.35877863 3:-0.2519084 4:1.0334473 5:-0.0026855469 6:0.20898438 
-1 1:-0.015267176 2:-1.9465649 3:-0.19847328 4:1.0419922 5:0.010498047 6:0.22705078 
-0.17178324313715371 1:-0.38167939 2:1.9389313 3:-0.091603053 4:1.0493164 5:0.0021972656 6:0.20019531 
-1 1:-0.60305344 2:0.11450382 3:-0.30534351 4:1.0495605 5:-0.011962891 6:0.21484375 
-1 1:0.38167939 2:-1.9312977 3:-0.21374046 4:1.0322266 5:-0.0034179688 6:0.22509766 
-1 1:0.17557252 2:0.015267176 3:-0.20610687 4:1.0402832 5:-0.0078125 6:0.22314453 
-1 1:-0.26717557 2:0.038167939 3:-0.11450382 4:1.0471191 5:0.011962891 6:0.2121582 
-0.035269859692505699 1:-13.496183 2:0.35114504 3:-1.2366412 4:1.0930176 5:-0.1171875 6:0.12426758 
-0.16199390120086515 1:-3.7175573 2:14.763359 3:-2.1679389 4:1.5068359 5:0.20410156 6:0.079101562 
-1 1:0.38167939 2:2.5572519 3:-0.32061069 4:0.97705078 5:-0.25024414 6:0.50219727 
-1 1:1.7480916 2:-0.93129771 3:-0.26717557 4:0.99365234 5:-0.14550781 6:0.40380859 
-1 1:0.19847328 2:1.870229 3:-0.33587786 4:1.2121582 5:0.03125 6:0.24926758 
-0.97020054993878024 1:0.015267176 2:-0.015267176 3:-0.64122137 4:1.0432129 5:0.001953125 6:0.22314453 
-0.96299581215682317 1:-1.9312977 2:-0.030534351 3:1.5954198 4:1.0566406 5:-0.005859375 6:0.24389648 
-1 1:-0.015267176 2:-0.015267176 3:-0.29770992 4:1.0539551 5:-0.00390625 6:0.24291992 
-1 1:0.1221374 2:0.06870229 3:-0.27480916 4:1.0402832 5:0.00390625 6:0.25170898 
-1 1:1.8167939 2:1.9236641 3:-0.53435115 4:1.0549316 5:0.0012207031 6:0.24926758 
-1 1:1.8320611 2:-0.045801527 3:-0.41221374 4:1.0476074 5:-0.0063476562 6:0.21362305 
-1 1:1.6793893 2:-0.0076335878 3:-0.70992366 4:1.0595703 5:-0.015380859 6:0.21948242 
-1 1:-0.0076335878 2:0.015267176 3:-0.38167939 4:1.0515137 5:-0.0029296875 6:0.23120117 
-1 1:-0.099236641 2:-0.030534351 3:-0.30534351 4:1.0458984 5:-0.0051269531 6:0.2277832 
-1 1:0.25954198 2:0.0076335878 3:-0.06870229 4:1.048584 5:-0.0026855469 6:0.23535156 
-0.023869011173434623 1:-0.55725191 2:1.9007634 3:-0.47328244 4:1.0356445 5:-0.010009766 6:0.17382812 
-1 1:-0.21374046 2:-1.8854962 3:-0.12977099 4:1.046875 5:-0.0056152344 6:0.20996094 
-1 1:0.26717557 2:-0.083969466 3:-0.39694656 4:1.0478516 5:-0.0034179688 6:0.22949219 
-1 1:-1.9312977 2:0.13740458 3:-0.55725191 4:1.0537109 5:-0.00390625 6:0.22680664 
-1 1:1.7862595 2:-0.045801527 3:-0.045801527 4:1.0371094 5:-0.015380859 6:0.22583008 
-1 1:-0.099236641 2:1.9389313 3:-0.10687023 4:1.0500488 5:-0.0012207031 6:0.22314453 
-1 1:1.6717557 2:-1.9465649 3:-0.52671756 4:1.0427246 5:0.012451172 6:0.21069336 
-1 1:-0.16030534 2:0.022900763 3:-0.22900763 4:1.0463867 5:0.001953125 6:0.21728516 
-1 1:0.11450382 2:0.038167939 3:-0.23664122 4:1.0454102 5:-0.00073242188 6:0.21972656 
-1 1:-1.5114504 2:0.030534351 3:-0.46564885 4:1.0688477 5:-0.041748047 6:0.027099609 
-0.04704100304593678 1:-10.030534 2:-0.36641221 3:-0.82442748 4:1.0388184 5:-0.044433594 6:0.34912109 
-0.14975131115493565 1:-1.6946565 2:10.40458 3:-1.5343511 4:1.4916992 5:0.027587891 6:0.31762695 
-1 1:-0.099236641 2:0.20610687 3:-0.50381679 4:1.0922852 5:-0.071777344 6:0.13061523 
-1 1:-0.33587786 2:0.022900763 3:-0.30534351 4:1.1555176 5:-0.0026855469 6:0.19067383 
-0.74859113626927221 1:0.076335878 2:-0.29007634 3:-0.33587786 4:1.0266113 5:-0.019042969 6:0.23657227 
-1 1:-0.44274809 2:-0.083969466 3:-0.19083969 4:1.0458984 5:-0.0053710938 6:0.20654297 
-0.95699812439689724 1:-0.29770992 2:-1.9389313 3:-0.51908397 4:1.0524902 5:-0.0046386719 6:0.22729492 
-1 1:-0.053435115 2:-0.038167939 3:-0.1221374 4:1.050293 5:0.00024414062 6:0.23999023 
-1 1:-0.015267176 2:1.9312977 3:-0.29770992 4:1.0336914 5:-0.0046386719 6:0.2253418 
-1 1:0.0076335878 2:-0.1221374 3:0.053435115 4:1.0507812 5:-0.00073242188 6:0.2277832 
-1 1:-0.11450382 2:-1.9160305 3:-0.091603053 4:1.0444336 5:-0.015625 6:0.23461914 
-1 1:0.06870229 2:-0.091603053 3:-0.13740458 4:1.0603027 5:-0.0083007812 6:0.22924805 
-1 1:0.13740458 2:-0.0076335878 3:-0.54961832 4:1.046875 5:-0.0017089844 6:0.22167969 
-1 1:1.7328244 2:-0.14503817 3:-0.28244275 4:1.0473633 5:-0.0063476562 6:0.23901367 
-1 1:-0.29770992 2:-0.0076335878 3:-0.46564885 4:1.0471191 5:0.0043945312 6:0.20703125 
-1 1:-0.06870229 2:-0.083969466 3:-0.33587786 4:1.0620117 5:0.014404297 6:0.21923828 
-1 1:1.6030534 2:-0.022900763 3:1.8091603 4:1.0441895 5:-0.0036621094 6:0.21606445 
-1 1:-0.28244275 2:-1.9465649 3:-0.5648855 4:1.041748 5:-0.0029296875 6:0.23022461 
-1 1:-0.0076335878 2:-0.022900763 3:-0.45801527 4:1.0544434 5:-0.0085449219 6:0.22167969 
-1 1:1.8778626 2:-0.0076335878 3:-0.40458015 4:1.0441895 5:-0.0017089844 6:0.22119141 
-1 1:0.12977099 2:-0.045801527 3:-0.58778626 4:1.046875 5:-0.0029296875 6:0.20336914 
-1 1:-0.13740458 2:-1.9312977 3:-0.20610687 4:1.046875 5:-0.00390625 6:0.22680664 
-1 1:0.053435115 2:0.15267176 3:-0.11450382 4:1.0541992 5:0.0053710938 6:0.20336914 
-0.093987967879256742 1:-6.5419847 2:-0.76335878 3:-0.24427481 4:0.984375 5:-0.087890625 6:0.22265625 
-0.14223655420162717 1:-21.099237 2:4.8015267 3:-3.6030534 4:1.0061035 5:-0.21069336 6:0.40063477 
-0.058380720890751144 1:-13.007634 2:2.3969466 3:-0.7480916 4:1 5:-0.13354492 6:0.65869141 
-0.070805344807573015 1:-5.2366412 2:1.4198473 3:-0.75572519 4:1.0300293 5:-0.001953125 6:0.28222656 
-0.16875575360429199 1:7.1755725 2:8.7251908 3:-2.221374 4:1.6809082 5:0.14575195 6:0.68774414 
-1 1:0.19083969 2:-0.20610687 3:-0.35877863 4:0.97167969 5:-0.023925781 6:0.28759766 
-1 1:0.10687023 2:1.8854962 3:-0.4351145 4:1.0412598 5:-0.0021972656 6:0.21337891 
-1 1:-0.022900763 2:-0.076335878 3:-0.21374046 4:1.0524902 5:-0.0051269531 6:0.22143555 
-1 1:1.740458 2:-0.083969466 3:-0.32824427 4:1.0515137 5:0.0090332031 6:0.2277832 
-1 1:1.7328244 2:-0.06870229 3:-0.53435115 4:1.0366211 5:-0.0070800781 6:0.22460938 
-1 1:0.030534351 2:-0.030534351 3:-0.4351145 4:1.0495605 5:-0.00390625 6:0.24829102 
-1 1:-0.022900763 2:-0.083969466 3:-0.48091603 4:1.0324707 5:-0.0061035156 6:0.22827148 
-0.73900455658823749 1:-1.8854962 2:0.030534351 3:-0.47328244 4:1.0483398 5:-0.005859375 6:0.22631836 
-1 1:1.870229 2:-0.06870229 3:-0.32824427 4:1.045166 5:-0.0051269531 6:0.21728516 
-0.67510651936981014 1:-1.8473282 2:-1.9236641 3:-0.50381679 4:1.0495605 5:-0.0014648438 6:0.22412109 
-1 1:0.053435115 2:0.045801527 3:-0.076335878 4:1.0612793 5:0.013916016 6:0.22314453 
-1 1:0.091603053 2:-0.099236641 3:-0.64885496 4:1.0593262 5:0.0031738281 6:0.22998047 
-1 1:0.0076335878 2:-0.030534351 3:-0.12977099 4:1.0622559 5:0.0034179688 6:0.22460938 
-1 1:-0.099236641 2:0.0076335878 3:-0.46564885 4:1.0615234 5:-0.0036621094 6:0.21972656 
-1 1:-0.099236641 2:0.015267176 3:-0.083969466 4:1.043457 5:-0.0061035156 6:0.2199707 
-1 1:0.13740458 2:0.061068702 3:-0.39694656 4:1.0478516 5:-0.0034179688 6:0.22583008 
-1 1:0.015267176 2:-0.030534351 3:-0.10687023 4:1.0527344 5:-0.0012207031 6:0.22900391 
-1 1:1.7022901 2:-0.1221374 3:-0.11450382 4:1.0327148 5:-0.0092773438 6:0.22753906 
-0.12599110222308776 1:0.015267176 2:1.8320611 3:-0.50381679 4:1.0554199 5:-0.00048828125 6:0.22485352 
-1 1:0.083969466 2:-0.030534351 3:-0.3740458 4:1.0437012 5:-0.0012207031 6:0.22143555 
-1 1:-0.045801527 2:-0.06870229 3:-0.58015267 4:1.0515137 5:-0.0090332031 6:0.20800781 
-1 1:1.9465649 2:0.015267176 3:-0.17557252 4:1.0600586 5:0.0031738281 6:0.22094727 
-1 1:0.11450382 2:-0.030534351 3:-0.51908397 4:1.0432129 5:-0.0014648438 6:0.22143555 
-1 1:-0.21374046 2:-0.11450382 3:-0.33587786 4:1.0437012 5:-0.0087890625 6:0.20629883 
-1 1:-1.9541985 2:1.8931298 3:-0.70992366 4:1.0478516 5:0.0012207031 6:0.22241211 
-1 1:-0.0076335878 2:-0.061068702 3:-0.20610687 4:1.0354004 5:-0.0014648438 6:0.24243164 
-1 1:-0.091603053 2:-0.053435115 3:-0.21374046 4:1.0490723 5:-0.00024414062 6:0.22753906 
-1 1:-0.51145038 2:-0.1221374 3:-0.39694656 4:1.0493164 5:-0.0046386719 6:0.23413086 
-1 1:1.7328244 2:-1.9465649 3:-0.022900763 4:1.048584 5:-0.0053710938 6:0.23071289 
-1 1:-0.045801527 2:1.870229 3:-0.076335878 4:1.0505371 5:0.0051269531 6:0.2265625 
-1 1:0.045801527 2:-0.030534351 3:-0.3740458 4:1.0439453 5:-0.0046386719 6:0.22802734 
-1 1:0.10687023 2:-0.0076335878 3:-0.16030534 4:1.0358887 5:0.00048828125 6:0.22167969 
-1 1:1.9312977 2:-0.053435115 3:1.6717557 4:1.0517578 5:-0.012939453 6:0.21777344 
-1 1:-0.22137405 2:0.0076335878 3:-0.25954198 4:1.0507812 5:0.0009765625 6:0.21801758 
-1 1:-1.8396947 2:-0.022900763 3:-0.51145038 4:1.0507812 5:-0.0031738281 6:0.23168945 
-1 1:0.030534351 2:-1.9007634 3:-0.34351145 4:1.046875 5:-0.0075683594 6:0.22314453 
-1 1:0.015267176 2:-0.16030534 3:-0.40458015 4:1.0620117 5:0.0009765625 6:0.21875 
-1 1:1.6717557 2:-0.045801527 3:-0.5648855 4:1.0471191 5:-0.0053710938 6:0.20825195 
-1 1:-0.099236641 2:-0.045801527 3:-0.17557252 4:1.0432129 6:0.21972656 
-0.79650073721030978 1:-0.25954198 2:-0.015267176 3:-1.9160305 4:1.0488281 5:-0.0031738281 6:0.21435547 
-1 1:1.389313 2:-0.26717557 3:-0.44274809 4:1.1052246 5:-0.059326172 6:0.076416016 
-0.010124691403105615 1:-12.618321 2:2.0687023 3:-0.63358779 4:1.060791 5:-0.13696289 6:-0.10888672 
-0.084522454715697193 1:-21.450382 2:3.6412214 3:-1.0687023 4:0.99584961 5:-0.15136719 6:0.20043945 
-0.11030213473890542 1:2.3740458 2:9.2748092 3:-1.6793893 4:1.9152832 5:0.18701172 6:0.75146484 
-1 1:1.6717557 2:-0.42748092 3:-0.19083969 4:1.0961914 5:0.0021972656 6:0.27319336 
-1 1:0.030534351 2:-0.099236641 3:-0.30534351 4:1.0625 5:-0.0078125 6:0.23608398 
-1 1:-0.099236641 2:0.022900763 3:-0.35114504 4:1.0385742 5:-0.0021972656 6:0.22119141 
-1 1:1.7022901 2:0.1221374 3:-0.34351145 4:1.0339355 5:-0.015625 6:0.21923828 
-1 1:1.7709924 2:-0.0076335878 3:-0.58015267 4:1.0334473 5:-0.0068359375 6:0.21923828 
-1 1:1.7938931 2:1.9236641 3:-0.32061069 4:1.0466309 5:-0.0085449219 6:0.22973633 
-1 1:0.038167939 2:-0.015267176 3:-0.30534351 4:1.0600586 5:0.0021972656 6:0.22973633 
-0.97294821317741076 1:-0.076335878 2:-0.045801527 3:-0.2519084 4:1.0620117 5:-0.0024414062 6:0.23388672 
-1 1:0.045801527 2:0.015267176 3:-0.49618321 4:1.0500488 5:0.0014648438 6:0.23046875 
-0.95569124280934525 1:-0.12977099 2:0.038167939 3:-0.44274809 4:1.0439453 5:-0.014160156 6:0.22290039 
-1 1:-0.022900763 2:-0.12977099 3:-0.21374046 4:1.0566406 5:-0.00048828125 6:0.22338867 
-1 1:0.030534351 2:-0.045801527 3:-0.50381679 4:1.0444336 5:-0.015380859 6:0.21435547 
-1 1:-1.7480916 2:-0.061068702 3:-0.38167939 4:1.0456543 5:-0.0021972656 6:0.20947266 
-1 1:-0.038167939 2:-0.076335878 3:-0.5648855 4:1.0361328 5:-0.0046386719 6:0.21289062 
-1 1:-0.32824427 2:-0.053435115 3:-0.20610687 4:1.0444336 5:-0.005859375 6:0.21240234 
-1 1:-0.030534351 2:-1.8778626 3:-0.19847328 4:1.0341797 5:-0.0014648438 6:0.2253418 
-1 1:1.610687 2:-1.8625954 3:-0.3129771 4:1.0412598 5:-0.00048828125 6:0.23193359 
-1 1:-0.30534351 2:-1.9465649 3:-0.5648855 4:1.0439453 5:-0.013427734 6:0.22045898 
-1 1:1.5267176 2:-0.12977099 3:-0.51908397 4:1.0446777 5:0.014404297 6:0.21923828 
-1 1:0.015267176 2:-0.030534351 3:-0.4351145 4:1.0493164 5:-0.0053710938 6:0.20581055 
-1 1:-0.32824427 2:0.030534351 3:-0.23664122 4:1.0620117 5:0.0051269531 6:0.21240234 
-0.89789367382806029 1:-0.45038168 2:-0.099236641 3:-0.36641221 4:1.0495605 5:-0.0034179688 6:0.22753906 
-1 1:-0.06870229 2:-0.0076335878 3:-0.25954198 4:1.0336914 5:-0.00073242188 6:0.21191406 
-1 1:0.083969466 2:1.9312977 3:-0.11450382 4:1.0407715 5:0.00073242188 6:0.22070312 
-1 1:-0.41984733 2:-0.076335878 3:-1.9083969 4:1.0600586 5:-0.0043945312 6:0.22949219 
-1 1:-1.8015267 2:1.8625954 3:-0.40458015 4:1.0322266 5:0.0014648438 6:0.22851562 
-1 1:1.8091603 2:-0.038167939 3:-0.59541985 4:1.043457 5:-0.015625 6:0.22045898 
-0.9681466663641104 1:-0.20610687 2:-0.10687023 3:-0.51908397 4:1.050293 5:0.0009765625 6:0.20410156 
-1 1:-0.5648855 2:0.030534351 3:-1.9160305 4:1.0466309 5:-0.00073242188 6:0.22509766 
-1 1:1.8167939 2:-0.0076335878 3:-0.33587786 4:1.0324707 5:-0.0034179688 6:0.2199707 
-1 1:-0.061068702 2:0.0076335878 3:-0.23664122 4:1.0527344 5:-0.0078125 6:0.2199707 
-1 1:1.8549618 2:-0.10687023 3:-0.38167939 4:1.0617676 5:0.00073242188 6:0.20825195 
-0.17102893405169176 1:-0.32824427 2:1.9465649 3:1.7557252 4:1.0615234 5:-0.0036621094 6:0.21142578 
-1 1:-0.32061069 2:-0.053435115 3:-0.46564885 4:1.0603027 5:-0.0046386719 6:0.20654297 
-1 1:-0.35114504 2:-0.076335878 3:-0.20610687 4:1.0439453 5:-0.0048828125 6:0.21386719 
-1 1:-0.061068702 2:-0.045801527 3:-0.29007634 4:1.0478516 5:0.00390625 6:0.21728516 
-1 2:-0.091603053 3:-0.21374046 4:1.0407715 5:-0.00048828125 6:0.20654297 
-0.0839975123637514 1:-9.7328244 2:0.19847328 3:-0.70992366 4:1.092041 5:-0.11206055 6:-0.29077148 
-0.17155575663308192 1:-22.870229 2:-9.7175573 3:-2.3587786 4:0.96264648 5:-0.33886719 6:0.33789062 
-0.054725315177717844 1:-12.389313 2:2.8854962 3:-0.87022901 4:1.5756836 5:0.15649414 6:0.37939453 
-0.17139383038884282 1:12.725191 2:19.78626 3:-0.26717557 4:-0.34960938 5:0.24707031 6:0.31420898 
-0.15040874703670312 1:-2.5801527 2:-4.5267176 3:-3.129771 4:1.9941406 5:0.19140625 6:0.53564453 
-0.92038143850403165 1:-0.38931298 2:-1.6259542 3:-0.77099237 4:0.74023438 5:-0.097412109 6:0.12451172 
-1 1:0.06870229 2:0.20610687 3:-0.42748092 4:1.0390625 5:0.005859375 6:0.26171875 
-0.15521924849297764 1:-1.9083969 2:-1.9312977 3:-0.083969466 4:1.0678711 5:0.018310547 6:0.19677734 
-1 1:-0.061068702 2:1.9465649 3:-0.053435115 4:1.0566406 5:0.0087890625 6:0.22631836 
-1 1:-0.20610687 2:-1.9465649 3:-0.33587786 4:1.0375977 5:0.012939453 6:0.21899414 
-0.20021281244783956 1:-0.2519084 2:-0.083969466 3:-1.9236641 4:1.0588379 5:-0.015625 6:0.21459961 
-1 1:-0.045801527 2:-0.076335878 3:-0.23664122 4:1.0471191 5:0.0017089844 6:0.22192383 
-1 1:-0.12977099 2:0.053435115 3:-0.0076335878 4:1.0500488 5:0.00048828125 6:0.20922852 
-1 1:-0.022900763 2:-0.15267176 3:-0.23664122 4:1.0341797 5:-0.0053710938 6:0.23291016 
-1 1:-0.038167939 2:1.8854962 3:-0.11450382 4:1.0463867 5:-0.0053710938 6:0.2253418 
-1 1:1.7328244 2:-0.083969466 3:-0.41984733 4:1.0622559 5:0.0024414062 6:0.22875977 
-1 2:-0.022900763 3:-0.46564885 4:1.0454102 5:-0.0036621094 6:0.23266602 
-1 1:-0.076335878 2:-1.9541985 3:-0.21374046 4:1.0429688 5:-0.013427734 6:0.22167969 
-1 1:0.030534351 2:-0.022900763 3:-0.34351145 4:1.0429688 5:-0.00073242188 6:0.22338867 
-1 1:1.6946565 2:-0.015267176 3:-0.65648855 4:1.0598145 5:-0.0061035156 6:0.20336914 
-1 1:-0.54961832 2:-0.083969466 3:-0.24427481 4:1.0588379 5:-0.0026855469 6:0.21875 
-1 1:-0.14503817 2:1.9312977 3:-0.045801527 4:1.057373 5:-0.0046386719 6:0.22241211 
-1 1:1.5954198 2:1.7557252 3:-0.29770992 4:1.0456543 5:0.014648438 6:0.22363281 
-1 1:0.045801527 2:0.0076335878 3:-0.48854962 4:1.0322266 5:0.0063476562 6:0.22094727 
-1 1:-0.29770992 2:-0.0076335878 3:-0.44274809 4:1.0319824 5:-0.0024414062 6:0.20776367 
-1 1:0.16030534 2:-0.083969466 3:-0.51908397 4:1.0415039 5:-0.00390625 6:0.21069336 
-1 1:1.9312977 2:-0.030534351 3:-0.10687023 4:1.0600586 5:0.00048828125 6:0.21679688 
-0.80374966854165653 2:-0.11450382 3:-0.47328244 4:1.0532227 5:-0.0009765625 6:0.23144531 
-1 1:0.0076335878 2:-0.061068702 3:-0.23664122 4:1.0610352 5:-0.014648438 6:0.22094727 
-0.34829627257959594 1:-0.40458015 2:-0.10687023 3:-0.70992366 4:1.0600586 5:0.0041503906 6:0.21923828 
-1 1:-0.10687023 2:0.053435115 3:-0.11450382 4:1.0505371 5:-0.012695312 6:0.2199707 
-1 1:0.038167939 2:-0.053435115 3:-0.46564885 4:1.0561523 5:-0.014648438 6:0.22900391 
-0.13324360693026524 1:-19.732824 2:1.9389313 3:-0.75572519 4:1.0637207 5:-0.28857422 6:-0.028564453 
-0.11294378423514287 1:-14.496183 2:-1.7633588 3:-0.41221374 4:0.89746094 5:-0.15625 6:0.79272461 
-0.42511874163850955 1:-2.7175573 2:0.65648855 3:-0.12977099 4:0.85473633 5:0.0029296875 6:0.61669922 
-1 1:0.061068702 2:0.58015267 3:-0.22900763 4:1.0683594 5:-0.00024414062 6:0.15795898 
-1 1:-1.9312977 2:0.061068702 3:-0.51908397 4:1.050293 5:-0.034912109 6:0.20874023 
-1 1:-0.72519084 2:0.022900763 3:-0.49618321 4:1.0859375 5:0.010742188 6:0.20263672 
-1 1:-1.2900763 2:0.24427481 3:-0.61068702 4:1.0493164 5:-0.029296875 6:0.17700195 
-0.16885860908881142 1:0.86259542 2:-8.0763359 3:0.015267176 4:1.2546387 5:-0.13818359 6:0.33862305 
-1 1:-1.9236641 2:-0.22137405 3:-0.70992366 4:1.0505371 5:-0.0024414062 6:0.23681641 
-1 1:1.6717557 2:-0.022900763 3:-0.60305344 4:1.0585938 5:-0.0043945312 6:0.22851562 
-0.58902000867069193 1:0.091603053 2:-0.19847328 3:-0.6259542 4:1.0549316 5:0.0017089844 6:0.22167969 
-0.68269087835708431 1:-1.8320611 2:0.022900763 3:-0.35877863 4:1.0461426 6:0.22338867 
-1 1:-0.030534351 2:-0.083969466 3:-0.22137405 4:1.032959 5:-0.00048828125 6:0.23803711 
-0.23021178483479962 1:-0.45038168 2:-0.061068702 3:-0.47328244 4:1.0388184 5:-0.00073242188 6:0.22827148 
-1 1:-0.091603053 2:-1.9465649 3:-0.75572519 4:1.0432129 5:-0.005859375 6:0.22290039 
-1 1:-0.045801527 2:0.06870229 3:-0.19083969 4:1.0537109 5:0.0078125 6:0.22680664 
-1 1:-0.091603053 2:-0.0076335878 3:-0.20610687 4:1.050293 5:-0.0021972656 6:0.22509766 
-0.62510693949970442 1:-1.8320611 2:-0.2519084 3:-0.53435115 4:1.0495605 5:-0.0053710938 6:0.23193359 
